"","mean","sd","2.5%","25%","50%","75%","97.5%","Rhat","n.eff"
"b[1]",0.207654485159469,0.0561930848368958,0.0953937651484253,0.17110633559312,0.208067056931894,0.24382999927579,0.318654165935574,1.00521819355273,2000
"b[2]",0.479950789756138,0.0552908751134713,0.370396957240505,0.443299782808555,0.479385432579321,0.515333052679743,0.590783201638646,1.00258056871775,960
"b[3]",0.636829561451624,0.0587363017147269,0.520750915472561,0.597889444560509,0.635584305314957,0.677161944070395,0.75016978252894,1.0016558046661,1700
"b[4]",0.670369779116966,0.0605368206988909,0.550024798242238,0.630597865823891,0.67005329528738,0.710301907050707,0.793391805979717,1.00159077887624,1800
"b[5]",0.774897325235381,0.0602336876184544,0.657397581298697,0.734761519752055,0.775465987462155,0.814959786277518,0.895777130923137,1.00149670555901,2000
"b[6]",0.822999114223296,0.0541860865342309,0.71718610722893,0.7867093306605,0.822156542073679,0.859460986855049,0.928487754263302,1.00266685199674,920
"b[7]",0.840832111123787,0.0517450005998168,0.739816502503823,0.806154848922431,0.840226954698484,0.875033377730432,0.941780628506776,1.00259223300883,960
"b[8]",0.848411037658604,0.0582146482838489,0.733725213686908,0.810106955071063,0.849193484024728,0.887498270532086,0.961043803254327,1.00303954890074,790
"b[9]",0.721619365312292,0.375313682443452,-0.0110429771565975,0.465886129380267,0.720738639735919,0.962814165524573,1.47622918467095,1.00075837404789,3000
"b[10]",0.149554616538575,0.15698656086664,-0.156070620955673,0.0422932367279177,0.147527747554662,0.258335613853912,0.456890042938957,1.00119173624167,2900
"b[11]",0.123964724620267,0.16055164645933,-0.186093470693036,0.0203088414208364,0.125251108313805,0.231167595176374,0.437356674901895,1.0012320356195,2700
"b[12]",0.307413176166806,0.156940150649525,-0.00447967552898893,0.202144323266467,0.304615438772219,0.413592369894915,0.617283861300689,1.00121478922862,2800
"b[13]",0.00147828114713192,0.143914140257343,-0.273334740081558,-0.0962919799843756,0.00145848806587752,0.0991387699149039,0.279276626678222,1.00095236235451,3000
"b[14]",-0.102159831924143,0.197720796819638,-0.482118242251257,-0.237889046457568,-0.104637314953634,0.0353469881987174,0.284467415505617,1.00095219069058,3000
"b[15]",0.0813588212976427,0.241147274692697,-0.376655359034446,-0.0755413054573282,0.074688525349983,0.241946543739221,0.547653483457048,1.00081462710557,3000
"b[16]",0.0243095108557326,0.124970101694955,-0.226441238515178,-0.0600799088888383,0.0267551432758506,0.109937407035099,0.270833026236049,1.00197885108892,1400
"b[17]",0.147507169289472,0.132292037420033,-0.111632817206492,0.0568707660714196,0.149065056031857,0.236636142363623,0.403711430302524,1.00102321110378,3000
"b[18]",0.108032342354799,0.364539707572135,-0.60464117774222,-0.135120624324373,0.106344583225475,0.349133143884945,0.840859475405684,1.00098130642272,3000
"b[19]",0.208362514045218,0.176100383038557,-0.144286364474094,0.090527764818172,0.212417204483503,0.324565345090053,0.5447415963127,1.00104383595684,3000
"b[20]",0.166207228396215,0.141727758719069,-0.114451786232771,0.0703447984499107,0.166199372011725,0.259335934344164,0.440441244595439,1.00145682982822,2100
"b[21]",-0.0304299699446878,0.140526418131807,-0.300122775755903,-0.122851676006092,-0.0340471366867383,0.0658984814330432,0.247690503609338,1.00246231550066,1000
"b[22]",-0.00044331474372821,0.171946629821543,-0.346323249830922,-0.112174249605608,-0.000134187685547148,0.111254944638894,0.331375444441866,1.00124324799744,2700
"b[23]",-0.00910261123404888,0.156778445393524,-0.315775411676677,-0.113686952077561,-0.0084330652495923,0.0969788607778744,0.291609360768132,1.00166831419156,1700
"b[24]",-0.185214183735606,0.192992873610027,-0.560575333602356,-0.310125700290996,-0.183925981910808,-0.0580303125784529,0.198362238832407,1.00081540832639,3000
"b[25]",-0.135946194825643,0.194039761161955,-0.523156563999251,-0.26292482924204,-0.136693780460894,-0.00780416524658506,0.243358229895465,1.00055605015526,3000
"b[26]",0.401082148684859,0.821713887103411,-1.18891786016732,-0.138394887529125,0.376548595890556,0.954722450904452,2.02413346433129,1.0026893169787,920
"b[27]",-0.344484802043165,0.180204405962225,-0.700549407907998,-0.463896829200354,-0.34227975492731,-0.220173538825102,-0.00740867794392774,1.00052386048102,3000
"b[28]",-0.476764213104996,0.257159170876825,-0.96960546153496,-0.653478814827665,-0.473815036968928,-0.30360005601181,0.0275129268876685,1.00117497703765,3000
"b[29]",-0.207165207505468,0.153627643995216,-0.525082634995588,-0.313851559185447,-0.206817193424997,-0.103554152268437,0.0908080272000545,1.00060927761338,3000
"b[30]",-0.0189302228322792,0.150994884871732,-0.304502042635252,-0.12083614693728,-0.0196065213670168,0.0831386859548172,0.274603234413513,1.00157200869154,1900
"b[31]",-0.101810215164253,0.221537386122764,-0.53788330245939,-0.250359618179629,-0.100991512510879,0.0483072052257148,0.339141116138742,1.00113828957516,3000
"b[32]",-0.342747382320845,0.176265389087597,-0.681972484445214,-0.461020752932297,-0.343971829596492,-0.224955796660456,0.00254853460550097,1.00193966264538,1400
"b[33]",-1.3370752537193,1.6925946369935,-4.72443945256792,-2.47326967476675,-1.29717284348777,-0.224154128260969,1.94202957862671,1.00066780380495,3000
"b[34]",0.0438534985547184,0.172895914730136,-0.295216521275629,-0.069726268141122,0.0444269332868443,0.161738026230388,0.377778961144942,1.00052367127821,3000
"b[35]",0.292600247169497,0.158784325882622,-0.0133859539401156,0.189111730012395,0.294102069998269,0.399287633627103,0.60751583665891,1.00112002344557,3000
"b[36]",0.205382124680682,0.473017247817702,-0.702013618786797,-0.112777253000227,0.206213648046647,0.509684677368931,1.16209334763229,1.00076511807725,3000
"b[37]",-0.0841383087971771,0.138134391361248,-0.353918058068242,-0.177816674379608,-0.0864271868497885,0.0119822132969577,0.188967655602811,1.00121315194863,2800
"b[38]",0.106832942617487,0.165841853728312,-0.225086743928836,-0.00248357581944673,0.106129767270541,0.218395382697337,0.443197449969223,1.00136529057872,2300
"b[39]",-0.0580292223948261,0.129099202468643,-0.315379833457348,-0.146908237418053,-0.0583386050635478,0.0276890900301495,0.197332036072547,1.00110899195597,3000
"b[40]",0.126249611440983,0.133231259955837,-0.136452383173944,0.0328067205233682,0.128589348222925,0.216527006075848,0.389199849501042,1.00159784890243,1800
"b[41]",-0.0127055952317538,0.522808763248352,-1.05584022956167,-0.369548721113425,-0.011940624867838,0.344790781731226,1.00267894474461,1.00165929324555,1700
"b[42]",-0.458665349449099,0.182625176139453,-0.815972409447413,-0.585041039311006,-0.459495868508508,-0.332595150393629,-0.0962150230130187,1.00236857940881,1100
"b[43]",0.19797091937954,0.14724843046916,-0.0910372334038996,0.100424926838286,0.196551287735134,0.300854936741142,0.479985317043722,1.00090731674723,3000
"b[44]",0.233287113206305,0.144663988584308,-0.0549516199069484,0.135755812717077,0.237992315965563,0.335838159780721,0.514876083326857,1.00139279779016,2200
"b[45]",-0.262641955800188,0.164795976207357,-0.585074923243019,-0.375794014949266,-0.266885825418114,-0.152699084218139,0.0627309169778413,1.00165985200537,1700
"b[46]",0.225536842699849,0.500497026474982,-0.728656636822238,-0.107933246513368,0.229364724973104,0.565933316421079,1.22176964122635,1.00274760712941,890
"b[47]",0.119089028779053,0.152759195230278,-0.185280932542006,0.0134277561876025,0.121036411660529,0.226604958417604,0.409024062881629,1.00140138873013,2200
"b[48]",0.247909934090692,0.467487581682851,-0.671111506035347,-0.0694097845333889,0.25333315265876,0.562718202365589,1.15521600995074,1.00254546669867,980
"b[49]",0.0803167739126154,0.143383002163872,-0.199715834712018,-0.0213772928651389,0.079756857220493,0.179476372702896,0.355135628484559,1.00121719051754,2800
"b[50]",0.304635297400822,0.152755061566986,0.0123333626976266,0.199905466724618,0.301994744914196,0.408930495876516,0.613026931292521,1.00118363548694,2900
"b[51]",0.0322326048144212,0.15548425090416,-0.27234063277636,-0.071365518946356,0.0324205225252847,0.135918263423734,0.336197783931965,1.00155128810631,1900
"b[52]",-0.32212216422099,0.166452844196029,-0.640186609515595,-0.432345007215435,-0.325469232547354,-0.212671032136221,0.0118190527055221,1.00349667309707,670
"b[53]",0.16503802568017,0.138666753553107,-0.10735237815172,0.0738248227040476,0.164908726478813,0.258630864222569,0.437797164285044,1.00217063822548,1200
"b[54]",-0.138745277568516,0.563719805180163,-1.23834305882112,-0.50647891527786,-0.145136368989977,0.227842709084436,0.950946462145041,1.00305055250468,790
"b[55]",-0.0545213112190314,0.147891490606265,-0.35056691066427,-0.151889941565426,-0.0542703632256812,0.0470947971340735,0.233784872313092,1.00091413489426,3000
"b[56]",0.320500696607136,0.310531681119753,-0.28917564433481,0.111927648189339,0.330965444370248,0.52938982098313,0.918566021640345,1.00102377910429,3000
"b0",-1.21294054374548,0.26092326467095,-1.72617531475535,-1.38158826907729,-1.20908925127361,-1.04014126192065,-0.69963521936364,1.00082279434218,3000
"b_fb",0.753277107114089,0.0498978592652303,0.655428552493993,0.720574753351213,0.754287022872122,0.786054658243663,0.847621091490629,1.00093885606592,3000
"deviance",174.304541326589,12.0867913313998,153.203421726275,165.521471177691,173.612783841084,181.882402418701,200.008412117871,1.00153121701277,1900
"mu[1]",-4.52549983919147,0.122375864424694,-4.76388260848196,-4.60802459843078,-4.52561565427385,-4.4413352603847,-4.28886751946789,1.00071860703297,3000
"mu[2]",-4.23437142872851,0.120406806127733,-4.46954553487675,-4.31783571202679,-4.23423510429489,-4.1522065014688,-4.00129426498802,1.0013411265749,2400
"mu[3]",-3.73565096536006,0.118506627787089,-3.96626907817629,-3.81978458717904,-3.73451998705777,-3.65333243442278,-3.50501342208645,1.00177689469096,1600
"mu[4]",-3.40683017662658,0.118931434846424,-3.63553649158516,-3.48892476773087,-3.40712913432448,-3.32712850218395,-3.16949215360371,1.00142229237555,2200
"mu[5]",-3.46757248920294,0.117282584603006,-3.69356657101982,-3.54802771189851,-3.46606713923749,-3.38686579556548,-3.23962641289145,1.00151143453154,2000
"mu[6]",-3.58502870303719,0.118509491796142,-3.81588180440313,-3.66784380936987,-3.58711949664684,-3.50365696452254,-3.34585488720077,1.00139379809381,2200
"mu[7]",-3.91088145563653,0.120497346893007,-4.14245628506044,-3.99261335041233,-3.91223254277113,-3.83227755337235,-3.67075831601449,1.00180726485218,1500
"mu[8]",-4.35252465025512,0.123812965782562,-4.592655891428,-4.43761100273316,-4.3529632449713,-4.27096778843121,-4.11056878558425,1.00161539886052,1800
"mu[9]",-4.74042393264271,0.128310368515488,-4.9920419570794,-4.82852621361689,-4.74207573763301,-4.65403115429262,-4.48888898431849,1.00221428583149,1200
"mu[10]",-3.90188542597757,0.352525544110431,-4.59354612842099,-4.13992286548101,-3.90580367578071,-3.66866913121251,-3.20634744893103,1.00103300298417,3000
"mu[11]",-3.62609853239564,0.354688443579927,-4.31513807144147,-3.87211042431474,-3.62852764010533,-3.39071310677382,-2.92498533408826,1.00097605067954,3000
"mu[12]",-3.63573005512192,0.354038498680498,-4.32980530361437,-3.87566899789239,-3.63984524498441,-3.40194206123967,-2.93577993197013,1.00101139696592,3000
"mu[13]",-3.17592940408965,0.353160239717043,-3.8748948252057,-3.41708511001561,-3.18413994974645,-2.93780915682323,-2.47250304903273,1.00106223585271,3000
"mu[14]",-3.36459158716808,0.353426971101517,-4.06042627435724,-3.6041849123049,-3.37355107672349,-3.13054150405848,-2.66580911361681,1.00108033610968,3000
"mu[15]",-3.41730699991516,0.353628298185655,-4.10585175571924,-3.65436318350932,-3.42219932438099,-3.18252840627372,-2.72667876809307,1.00106006569899,3000
"mu[16]",-3.20956942698583,0.0600022040133432,-3.32403862099919,-3.25056889747952,-3.2095195177201,-3.17007230057424,-3.0893343328932,1.00172453356038,1600
"mu[17]",-2.71819713472072,0.0548327939963117,-2.82446335658752,-2.7561908253134,-2.7190025296396,-2.68074383403848,-2.60697257471647,1.00061712793188,3000
"mu[18]",-2.37174817685118,0.051335810853213,-2.47069766846885,-2.4071985280736,-2.37133201214628,-2.33728142722933,-2.26960066751864,1.00056000079199,3000
"mu[19]",-2.06868748097868,0.0492742781007709,-2.16352737726194,-2.10161972726592,-2.06977920839076,-2.03598812203975,-1.97223068472943,1.00052171773357,3000
"mu[20]",-1.94583892931981,0.049738502220147,-2.04068699426984,-1.97973486221124,-1.94622346092807,-1.91311604094383,-1.84846603024075,1.00052704688308,3000
"mu[21]",-1.81624624649036,0.0489671248427106,-1.91197283938689,-1.84974617208469,-1.81714407846768,-1.78348853849862,-1.72026706549278,1.00132514593909,2700
"mu[22]",-1.89948087258641,0.0494448549689111,-1.99515995861521,-1.93293676593826,-1.89991298208902,-1.86685361007103,-1.80545608914622,1.00056333669892,3000
"mu[23]",-2.10329173470458,0.0510625983999472,-2.20365623115198,-2.13832870107874,-2.10299329572454,-2.06999674006881,-2.00438164344106,1.00065882684313,3000
"mu[24]",-2.3264467251533,0.0555279727606683,-2.43688347750374,-2.36461650195723,-2.3251333906266,-2.28781832877302,-2.22001031374127,1.00096695899154,3000
"mu[25]",-4.05563741749423,0.11606845792011,-4.27288135951466,-4.13765201092876,-4.05813632192663,-3.97688270598482,-3.82144137076225,1.00101338538858,3000
"mu[26]",-3.66006977765329,0.11415124737123,-3.8789604446706,-3.73790715954233,-3.66224077876349,-3.5836345014484,-3.42489951674796,1.00063089153902,3000
"mu[27]",-3.27000155744406,0.111904750250589,-3.48163220510794,-3.34693043368385,-3.27264580508564,-3.19631561463393,-3.04768938809731,1.00052353721486,3000
"mu[28]",-3.04923284485642,0.11168620561688,-3.2636270970469,-3.12608776546184,-3.05102155046078,-2.97147483567388,-2.82635713228181,1.00057463766909,3000
"mu[29]",-2.9363269627523,0.110022606650648,-3.14690568920889,-3.01051699569147,-2.93552725948478,-2.86349456004127,-2.7184951617193,1.00053515544631,3000
"mu[30]",-2.97040514851401,0.109563045394787,-3.17831195302782,-3.04395185549529,-2.97364277683803,-2.89679216976618,-2.7490358845168,1.00056227509811,3000
"mu[31]",-3.16084332674941,0.111033296901675,-3.37279027175374,-3.23791189926796,-3.16112877167609,-3.08679978905174,-2.92991554641323,1.00057242998022,3000
"mu[32]",-3.56595234251028,0.113286826728826,-3.78126513681945,-3.6392168618249,-3.56622535508324,-3.49205938065682,-3.33959676248089,1.00054186579906,3000
"mu[33]",-3.962990889962,0.117205418213488,-4.18278936871569,-4.04252281986952,-3.96412508134136,-3.88509996466228,-3.73550909327839,1.00096389661105,3000
"mu[34]",-2.92152402136363,0.0472325740547237,-3.01289397080893,-2.95242243976568,-2.92190352782291,-2.89019026186865,-2.82810938291973,1.00235702810295,1100
"mu[35]",-2.66239452569343,0.04446105785157,-2.74966199093216,-2.69291702522153,-2.66333196258483,-2.63250226306929,-2.57546862553603,1.00101500754353,3000
"mu[36]",-2.24384494020987,0.0386963822230316,-2.32032776369795,-2.26920568774339,-2.24404209053825,-2.21797421317211,-2.1667120616302,1.00084409334347,3000
"mu[37]",-1.8737315794671,0.0360507463181658,-1.94582159139942,-1.89771507539326,-1.87342057962441,-1.84928629315982,-1.80475381989055,1.00065271779545,3000
"mu[38]",-1.70096715624604,0.035479322450542,-1.76928097777374,-1.72482256647704,-1.70091364189091,-1.67771143886166,-1.63030296012119,1.00063401888304,3000
"mu[39]",-1.55968709640645,0.0343778283565123,-1.62639186448575,-1.58285084133701,-1.5598303244945,-1.53638481139523,-1.49216501530755,1.00146742037818,2100
"mu[40]",-1.53476489344013,0.0355926104074433,-1.60420027713994,-1.5583223632171,-1.53444170932026,-1.5109156191845,-1.46547803858812,1.0006998004388,3000
"mu[41]",-1.68077559255366,0.039557373946893,-1.75856495024446,-1.70741902496678,-1.68150882618728,-1.65348529893669,-1.60434927343257,1.00079542797492,3000
"mu[42]",-1.93597964672683,0.0444304773827685,-2.0249942411206,-1.96549963882197,-1.9341042377159,-1.90549518620427,-1.8487455734877,1.00138036385006,2300
"mu[43]",-3.52004955395459,0.0722720631720579,-3.66017977537839,-3.56906989712536,-3.51954479624056,-3.47019983598129,-3.37879864210037,1.00085997283666,3000
"mu[44]",-3.12308566328365,0.0698651262690981,-3.25830744222747,-3.16986168736123,-3.12175634200621,-3.07586842592794,-2.98598584612375,1.00054295590009,3000
"mu[45]",-2.85078935868698,0.0656717811624952,-2.97779608966948,-2.89593878260013,-2.85095993792516,-2.80576653725982,-2.71649908254205,1.00089700512841,3000
"mu[46]",-2.64958738535307,0.0637878359343744,-2.77302534073023,-2.69241478544593,-2.64933827797134,-2.6073138513363,-2.52494235399813,1.00061119742275,3000
"mu[47]",-2.5056141267556,0.0636959192498011,-2.62613733939972,-2.55012756726506,-2.50538577026228,-2.46375644909755,-2.37755605758742,1.00074974122172,3000
"mu[48]",-2.38775389440261,0.0628580970018391,-2.50952654899361,-2.4285056725895,-2.38873532845589,-2.34555302339347,-2.26583830085126,1.00134943783896,2400
"mu[49]",-2.55635642471976,0.0647490664100476,-2.68537887509953,-2.5991253879449,-2.55619547711753,-2.51297517521492,-2.42796298452608,1.00087731344768,3000
"mu[50]",-2.83681089066553,0.0651871092248269,-2.96752925100566,-2.88000599440068,-2.83718469951916,-2.79361909601331,-2.71161188233358,1.00090419254704,3000
"mu[51]",-3.15347861740925,0.0687522574445495,-3.28953699531111,-3.19973579290552,-3.15343051938686,-3.10706313272475,-3.01803115257644,1.00116097861719,3000
"mu[52]",-4.82987199900555,0.163467147396267,-5.15327735507586,-4.93802780059192,-4.82861420708047,-4.72078735650674,-4.51544281603197,1.00050808818161,3000
"mu[53]",-4.11480945587117,0.161678630609854,-4.42696507770956,-4.22380144795196,-4.11587209921898,-4.00426929140098,-3.79772962232152,1.00053114701267,3000
"mu[54]",-3.72569432785579,0.161503391434948,-4.04142427453928,-3.83635357356063,-3.72715488707952,-3.61644497945298,-3.41159514416792,1.00053820549411,3000
"mu[55]",-3.70200100997746,0.16086985071805,-4.01655194773039,-3.81095637787034,-3.70278262724531,-3.59162954428126,-3.39498386977191,1.00055236496748,3000
"mu[56]",-3.8566154341131,0.15993313352046,-4.16911971748507,-3.96326052876187,-3.8605257054243,-3.74804690276554,-3.54851965249907,1.00063270878189,3000
"mu[57]",-4.18235406246298,0.161235685886309,-4.49666528623029,-4.28994887059881,-4.18120967240333,-4.07455560344855,-3.87071972104141,1.00050350310299,3000
"mu[58]",-4.61653008395178,0.165098087160831,-4.9466485551244,-4.72707946035096,-4.61906574872561,-4.5029672443069,-4.29023031217156,1.00050522466721,3000
"mu[59]",-5.15589913871003,0.16851186183558,-5.48724079441859,-5.26908411442662,-5.15935963892463,-5.04225653497231,-4.8197730291122,1.00060142514362,3000
"mu[60]",-3.94108044007422,0.211519166756282,-4.34491028231617,-4.07963840768585,-3.94418923367089,-3.80058621531743,-3.52769315929498,1.00134522518199,2800
"mu[61]",-3.59224264004378,0.209948453266987,-4.00558333818564,-3.73057092647652,-3.59419104081754,-3.45250458252242,-3.19036990664439,1.00172556288511,1700
"mu[62]",-3.17401973780659,0.20873094384347,-3.5830120187583,-3.31128367751955,-3.17474867990805,-3.03530902931305,-2.77094716699133,1.00190956886603,1400
"mu[63]",-2.85195484285239,0.208953787624404,-3.26039062688548,-2.98921304336727,-2.85565613159355,-2.71041337792797,-2.44789231587894,1.00180263708966,1700
"mu[64]",-3.00528949285766,0.207600200471152,-3.41036492858853,-3.14166737822952,-3.00468343009998,-2.86507167130211,-2.59639842193485,1.00200745559453,1600
"mu[65]",-3.10588877555694,0.208484144777352,-3.51417530856296,-3.24369566805836,-3.10663868449979,-2.96815029023368,-2.70693481474754,1.00161579430667,1800
"mu[66]",-3.4628815201707,0.209964803469449,-3.87987682279435,-3.6003913546591,-3.46059967381457,-3.31955029566809,-3.06194683390899,1.00206903224851,1300
"mu[67]",-3.95735188094139,0.214556849911581,-4.38860818351945,-4.10033978957395,-3.95533903958641,-3.81668700961743,-3.54485778095096,1.0019217826754,1500
"mu[68]",-4.08831781786865,0.214094258888038,-4.51575791269902,-4.23143587549317,-4.09015728609181,-3.94402375420648,-3.675904298598,1.00248124388564,1100
"mu[69]",-4.27938594143003,0.0707684351889407,-4.41899635923025,-4.32733493674418,-4.28134881175041,-4.23266113261165,-4.13830845644335,1.00236599460752,1100
"mu[70]",-4.07347616372596,0.0664523195027877,-4.20411430923832,-4.11768410639823,-4.07319680261863,-4.02780975173872,-3.94516842377982,1.00091415204598,3000
"mu[71]",-3.70689732888758,0.0618056249486583,-3.82692812903322,-3.74744185981715,-3.70707936044834,-3.66463272805968,-3.58905286800624,1.00064895688634,3000
"mu[72]",-3.38112441494085,0.0597226227714762,-3.49955711971554,-3.42150653197297,-3.38054413182961,-3.3409290420528,-3.26751817102779,1.00094732149294,3000
"mu[73]",-3.37519744593255,0.0598439252501713,-3.49389301607692,-3.41555333895555,-3.3750786049669,-3.33437225242165,-3.25894336281575,1.00093451472318,3000
"mu[74]",-3.40918647064697,0.0589774592918028,-3.52815861140886,-3.44673067334647,-3.40772949112977,-3.37011058068008,-3.29584026660509,1.00162687527238,1800
"mu[75]",-3.62084512558871,0.0615322287570591,-3.74241281819384,-3.66181282603991,-3.62041047345369,-3.57849374572862,-3.504587078175,1.00057244941407,3000
"mu[76]",-3.97594250001965,0.0644542062073286,-4.1014120899796,-4.01945059229791,-3.97564789676027,-3.93059503697587,-3.85383872729327,1.00066424571813,3000
"mu[77]",-4.27004536571256,0.0677309502316992,-4.4051500238291,-4.31586762469989,-4.26919395920668,-4.22512268969282,-4.13439242489193,1.00081119389351,3000
"mu[78]",-3.84978241723008,0.0686967013322895,-3.98376372765408,-3.89546805118426,-3.8499470026625,-3.80428701338728,-3.7149543880568,1.00095621252416,3000
"mu[79]",-3.58070349410603,0.0645578633298817,-3.71169133580642,-3.62328820713537,-3.57954605386289,-3.53753242263805,-3.45407540728543,1.00057451838113,3000
"mu[80]",-3.13260984327942,0.0615896827609506,-3.25569652456028,-3.17410004565396,-3.13311348235834,-3.09139067229136,-3.01310914559917,1.00111143857593,3000
"mu[81]",-2.74245879790521,0.0605070685110031,-2.8625215626312,-2.78300613482645,-2.74139742822734,-2.7010243240518,-2.62413596817875,1.00087045632545,3000
"mu[82]",-2.711974475332,0.0605814785294868,-2.83387747034157,-2.7530474663765,-2.71300133598006,-2.66925719030236,-2.59687205506314,1.00103687080252,3000
"mu[83]",-2.72674215597644,0.0593276521439893,-2.84336132100927,-2.7665032666573,-2.72592292349073,-2.68620599112787,-2.61470705367319,1.00175984531867,1600
"mu[84]",-3.03911872048677,0.0617227307416738,-3.16141357363679,-3.07949772242656,-3.03796844045257,-2.99863316604198,-2.91936544520179,1.00095564914832,3000
"mu[85]",-3.37158674785931,0.0644355571677857,-3.50168657693813,-3.41500604285581,-3.36994755955523,-3.32767607450314,-3.2475751308491,1.000928050416,3000
"mu[86]",-3.71442053735102,0.0705787512072891,-3.85434267031134,-3.76058405391006,-3.71336326518074,-3.66765172284439,-3.58050793217241,1.00117119305225,3000
"mu[87]",-4.78197282123679,0.347071747681938,-5.47127584322722,-5.0060269097692,-4.77838050983857,-4.55199104458498,-4.10033256460772,1.00084787172489,3000
"mu[88]",-4.73617286087245,0.346795494591349,-5.43521015118413,-4.96282316936914,-4.73473117978099,-4.5045687248871,-4.0629742758019,1.00075828116471,3000
"mu[89]",-4.43915930227754,0.343835468883751,-5.12599997428084,-4.66238765506513,-4.43765710181208,-4.21119543414289,-3.76659207783722,1.00079735922097,3000
"mu[90]",-3.98123402071392,0.344039311670271,-4.67458180258258,-4.20702868932194,-3.98267156879683,-3.751110958845,-3.30784915230394,1.00082759802599,3000
"mu[91]",-3.99098464805063,0.34573545857503,-4.68909486505888,-4.21855141645122,-3.98828851539507,-3.76293413100593,-3.3263089846003,1.00091783705062,3000
"mu[92]",-4.41403243445555,0.345136459964576,-5.10895161871524,-4.64228143764686,-4.4109914821286,-4.18277125862798,-3.74196748358559,1.00074646673582,3000
"mu[93]",-5.33752928787245,0.348903161646901,-6.0467897485186,-5.56706079358861,-5.3371312581762,-5.10028868977859,-4.66129313871649,1.00062055237167,3000
"mu[94]",-3.93619716526892,0.128867707911971,-4.19479494074489,-4.02473216704139,-3.93783583051513,-3.84712756672118,-3.68867418262555,1.00091697132886,3000
"mu[95]",-3.44515036728235,0.126775479633243,-3.69258684259884,-3.53076429451763,-3.44499492429964,-3.35752504637438,-3.19461705249228,1.00066691562965,3000
"mu[96]",-2.9671978260214,0.125516354257347,-3.21523780995517,-3.05309733020821,-2.96638520244587,-2.88182832396244,-2.7198640164818,1.00079971459381,3000
"mu[97]",-2.7097329131808,0.124898624519413,-2.9523262432599,-2.7957848112474,-2.70882076829639,-2.62462968972196,-2.46790828942334,1.00076794228048,3000
"mu[98]",-2.74509173400547,0.125122866823472,-2.99054303446776,-2.83123399743225,-2.74400083221985,-2.66141846837857,-2.50281458367783,1.00079408323227,3000
"mu[99]",-2.55809222169747,0.124660167837026,-2.80547711337363,-2.64099510934376,-2.55652714765865,-2.47584197990308,-2.31731215362953,1.00120038994537,2900
"mu[100]",-2.76134802487755,0.124700451037784,-3.00690715115689,-2.84555258461397,-2.76018666487313,-2.67883211850705,-2.52100761129588,1.00073836904833,3000
"mu[101]",-3.16930993549361,0.127013197765506,-3.42134105575294,-3.25533430564189,-3.17108181903908,-3.08402979694707,-2.91885703866896,1.00078178814832,3000
"mu[102]",-3.57065876877154,0.12999963137255,-3.82583113013431,-3.65879631845429,-3.57147170231066,-3.48240497533058,-3.30595742477898,1.00054152488096,3000
"mu[103]",-3.56572131510716,0.0581268536817399,-3.67830334334333,-3.60422393960984,-3.56665167955384,-3.52738188186879,-3.45051431903528,1.0023581606869,1100
"mu[104]",-3.17236594442493,0.0534222572762413,-3.27734768875973,-3.20829197585246,-3.1730948496013,-3.13750457413408,-3.07024005577179,1.00108066233193,3000
"mu[105]",-2.72911653606249,0.0481617344464825,-2.82581181272668,-2.76019619544281,-2.72900585488413,-2.69829371660142,-2.63481157181454,1.00065048765319,3000
"mu[106]",-2.37120396486181,0.046021306993859,-2.46185601594377,-2.40247086236182,-2.37086788020812,-2.34024265832269,-2.28314611137241,1.00145209552438,3000
"mu[107]",-2.18097105855407,0.0465875214002031,-2.27202839968761,-2.21299325588455,-2.18105458875013,-2.14877045660932,-2.09063024992906,1.00056935929882,3000
"mu[108]",-2.09250332620754,0.0462333984138891,-2.18322409343719,-2.12377785888361,-2.09220005611281,-2.0609892408275,-2.00345084890823,1.00104884392081,3000
"mu[109]",-2.25353516860744,0.0455615047361801,-2.34359604332651,-2.2837924246396,-2.2533022275245,-2.22345625255215,-2.16371974633523,1.00093001830773,3000
"mu[110]",-2.48569733095813,0.0482757214086424,-2.58230961121752,-2.51794867195872,-2.48555656111181,-2.4547496211897,-2.39118706944247,1.00050142729958,3000
"mu[111]",-2.81655248049032,0.0518586471680279,-2.9193797910174,-2.8499244875282,-2.81614715897838,-2.78166991702777,-2.71670774758133,1.00158889291388,1800
"mu[112]",-4.43534113057236,0.0913736564027892,-4.61222461559231,-4.49899134034419,-4.43479769431408,-4.37390636208283,-4.26141873503695,1.00292824336707,830
"mu[113]",-4.01991364136655,0.0879905626684119,-4.19331017391349,-4.07998678083232,-4.01837742272294,-3.96062038821917,-3.85085653112981,1.00160574858246,1800
"mu[114]",-3.5751636805017,0.0859958425102348,-3.73777849368913,-3.63396268452207,-3.57483517838206,-3.51662097607577,-3.40530400371516,1.00104434952336,3000
"mu[115]",-3.1952525378162,0.0852131923188806,-3.35658250837341,-3.25416821911809,-3.19502680191433,-3.13705796638959,-3.02885739372893,1.00158736278003,2100
"mu[116]",-3.13847665125636,0.0847779041794909,-3.29777971012175,-3.19567336956184,-3.13924030156986,-3.08040027089069,-2.96686135124551,1.00136244275327,2300
"mu[117]",-3.1367885912102,0.0849851855101472,-3.29687618535251,-3.19583134334247,-3.13559184991767,-3.07967874813663,-2.9709423398484,1.00176294989377,1800
"mu[118]",-3.40793637198772,0.0864675362487409,-3.57103454745917,-3.46870447728259,-3.40880324422997,-3.34802230322975,-3.23683300727698,1.00107672568858,3000
"mu[119]",-3.79214201359676,0.0879468125789112,-3.95490597675665,-3.85349820252862,-3.79287545063619,-3.73007284889565,-3.6242668884567,1.00112412513754,3000
"mu[120]",-4.12630021054755,0.0922420652633445,-4.30312968036479,-4.19002074532637,-4.12565490684328,-4.06314157122322,-3.94319963981876,1.00128555943259,2500
"mu[121]",-4.37110870974432,0.133994807918315,-4.62769286622593,-4.46087918168929,-4.36839981671774,-4.28057647866078,-4.11789963290028,1.0015930097326,1800
"mu[122]",-4.00839058470046,0.134119228512121,-4.27175020124142,-4.09490158393123,-4.00999533114887,-3.91795746432521,-3.74914502075463,1.00179808744511,1500
"mu[123]",-3.51218151242061,0.132674674595805,-3.7710608358144,-3.5990329261751,-3.51220585390742,-3.42465781397694,-3.25536857690297,1.00170046101075,1700
"mu[124]",-3.3152963251533,0.12916118769175,-3.56655112058515,-3.40222790240361,-3.31527502725881,-3.2293150982244,-3.06293331367094,1.0017276534895,1600
"mu[125]",-3.30654428613577,0.130894980428158,-3.56623199227922,-3.39192937286895,-3.30790581738344,-3.22170004683206,-3.05371690732881,1.00163168981717,1800
"mu[126]",-3.23583535672053,0.130642625372464,-3.49342916071171,-3.32171496601029,-3.23506187969331,-3.15097661070219,-2.97897695700854,1.00118576455811,2900
"mu[127]",-3.52136321995701,0.131551404339659,-3.77330839693619,-3.60726865151802,-3.52160429972982,-3.43752104218067,-3.26261817010648,1.00200717998976,1300
"mu[128]",-3.87827353655575,0.133412696696631,-4.13663455334312,-3.96601553931667,-3.8772483338589,-3.7897459477695,-3.61911952173921,1.001765150528,1600
"mu[129]",-4.23093443057038,0.135599621683411,-4.49919934248131,-4.31999899898042,-4.2302938919737,-4.14100303189873,-3.97076772493955,1.00284054801335,860
"mu[130]",-3.89551212703007,0.102083567832968,-4.09180279189599,-3.96497314516319,-3.89530792306878,-3.82824826100672,-3.68558013780458,1.00208119443623,1300
"mu[131]",-3.46863820467931,0.10065073031479,-3.66047424019548,-3.54049322893136,-3.46927133205221,-3.40184032225258,-3.26898027459742,1.00127272994882,2600
"mu[132]",-3.13604756080074,0.0975860538695666,-3.32414250173758,-3.20146913728921,-3.13924937574953,-3.06934570824305,-2.9409368497611,1.00128956107636,2500
"mu[133]",-2.84183013423896,0.0962229897222294,-3.02867930185763,-2.90668759457082,-2.84333364737885,-2.77688368612886,-2.64894015616805,1.0014306632014,2100
"mu[134]",-2.6788390521791,0.096163396316254,-2.85950987485031,-2.7458273042107,-2.68058545123964,-2.61340257110622,-2.48288571730897,1.00163941666808,1800
"mu[135]",-2.60556379741705,0.0962058516371682,-2.79226125335847,-2.67020476001892,-2.60710353606464,-2.53954481392196,-2.41425543315167,1.00243656730702,1000
"mu[136]",-2.82859375273659,0.0971697612094034,-3.0171120300397,-2.89548220831879,-2.82909135507392,-2.76539830387726,-2.63271063480605,1.00124091756522,2700
"mu[137]",-3.03954912052183,0.0980386695393473,-3.22701111304031,-3.10528001178701,-3.04149712820212,-2.97364244443448,-2.84067613558151,1.00156787663028,1900
"mu[138]",-3.50838264449507,0.101303632080818,-3.70197621336164,-3.57682006335618,-3.50982589894164,-3.44348012978101,-3.30399877605568,1.00078588157834,3000
"mu[139]",-4.93891897947177,0.155803635381987,-5.25427948322434,-5.04408521546511,-4.93817944219194,-4.83244139755905,-4.64229952893514,1.00059765504352,3000
"mu[140]",-4.65946951779077,0.155158388258128,-4.96448690409408,-4.76071396133361,-4.65994691162422,-4.55694436055927,-4.35945496708172,1.00052986231658,3000
"mu[141]",-4.24325567714649,0.152797911829986,-4.54571226451583,-4.3404688930436,-4.24324562501847,-4.14159481313066,-3.94177463442878,1.00063391197234,3000
"mu[142]",-3.83614359346084,0.152585597735239,-4.14356327099188,-3.93654579685756,-3.83638122447538,-3.72943584730236,-3.54340550229746,1.00059129898941,3000
"mu[143]",-3.81196097572308,0.152291605661584,-4.11385331887802,-3.91059186236892,-3.81288904902426,-3.71129801405113,-3.52056118391587,1.00062327062688,3000
"mu[144]",-3.99164053656975,0.152777474286391,-4.28745512532532,-4.09307296458919,-3.99247323839467,-3.89068766006925,-3.69329642919153,1.00070020167086,3000
"mu[145]",-4.24175788287513,0.153195411737742,-4.54723460745891,-4.3425167311676,-4.24050529513583,-4.13997233699669,-3.94667460180648,1.0005914603093,3000
"mu[146]",-4.8254224533899,0.15701711794628,-5.13305632039279,-4.92944226777139,-4.82711923023014,-4.71550864256593,-4.52672138669498,1.00056754642174,3000
"mu[147]",-5.20031542611089,0.160682508981276,-5.52493895513521,-5.30750646063078,-5.20003878740573,-5.09117519831667,-4.88554434241977,1.00066679625192,3000
"mu[148]",-4.81785601404028,0.161513488242663,-5.14194640859284,-4.92379268068154,-4.8167290353656,-4.70827531120198,-4.513288695796,1.00050574772993,3000
"mu[149]",-4.64695404260198,0.159079985399747,-4.96139960866953,-4.75096844082498,-4.64356813324191,-4.54503651179795,-4.33708539330451,1.00068235615957,3000
"mu[150]",-4.26937826636831,0.155916740506824,-4.57673063530761,-4.37351706857161,-4.26973434463878,-4.16517496716808,-3.97475418121093,1.00085123587033,3000
"mu[151]",-4.14029885256049,0.154063728416792,-4.44204079274673,-4.24362668638869,-4.14154862041649,-4.03740486364264,-3.83889163498082,1.00072953660983,3000
"mu[152]",-4.01803537052879,0.156000616457807,-4.3224239354829,-4.12025357880539,-4.01518111177137,-3.91676078585503,-3.71942818680191,1.00074025963261,3000
"mu[153]",-4.0429586888049,0.155715221298304,-4.3517923214919,-4.14634121504532,-4.0440993247744,-3.93912187492012,-3.73078111166486,1.00072155269395,3000
"mu[154]",-4.37965014792718,0.156798481101919,-4.68514822456727,-4.48423020400976,-4.37936121339861,-4.27566569775304,-4.06258453910487,1.00087539296973,3000
"mu[155]",-4.71586012519804,0.158683322088677,-5.02954676603152,-4.82254605419562,-4.71459836002481,-4.60934979912832,-4.39963416742231,1.00080663396416,3000
"mu[156]",-5.06567953297983,0.161361133521891,-5.37762147205379,-5.17453137299801,-5.06488808258474,-4.96055712931776,-4.74460300143877,1.00110770686392,3000
"mu[157]",-5.08789292598022,0.806007404126737,-6.65034835367642,-5.63334723922261,-5.09097242067979,-4.54468105957461,-3.52332249266873,1.00283895929851,860
"mu[158]",-5.10751214577344,0.807329542546064,-6.66701598598338,-5.65707218342691,-5.10880762479622,-4.55714048767557,-3.54193359277572,1.00280526935632,870
"mu[159]",-4.8762607549331,0.804773091821928,-6.42084427635125,-5.41948146204578,-4.88393524617715,-4.3380517754688,-3.31784298568252,1.00276508289365,880
"mu[160]",-5.0263946212578,0.142572789370166,-5.31315394377982,-5.11963386448612,-5.02758448347818,-4.92887745099253,-4.76065257302362,1.00077159850069,3000
"mu[161]",-4.84949041003718,0.139772228058719,-5.1310176932873,-4.93899966526115,-4.84975738504439,-4.75436887417691,-4.5832915875989,1.00133113725724,2400
"mu[162]",-4.40019055061478,0.138849074314398,-4.67977059103854,-4.49223772043767,-4.3991379882336,-4.30766818889746,-4.13515829490194,1.00170987660783,1700
"mu[163]",-4.05207829290548,0.137236692535862,-4.3256236633127,-4.14353321649613,-4.05060904133167,-3.95826304881452,-3.79127304713611,1.00143929068941,2100
"mu[164]",-4.0626499493117,0.13712830493359,-4.335742039956,-4.15496553913592,-4.05883938180568,-3.97195946588549,-3.80109335893346,1.00149736053816,2000
"mu[165]",-4.12907550695906,0.136561585035036,-4.40439433476667,-4.22020265036573,-4.12727543430856,-4.03832683345194,-3.87304764942564,1.00144991556144,2100
"mu[166]",-4.44852875142403,0.139116995681381,-4.72886541588672,-4.54119446738887,-4.44954825909058,-4.35247630586554,-4.18353009698743,1.00172558433084,1600
"mu[167]",-4.8223370234977,0.140730412363774,-5.09726534958932,-4.91385760531218,-4.82141400635783,-4.72612277005806,-4.54859000391908,1.00159510463523,1800
"mu[168]",-5.24131871470904,0.14495012361213,-5.52467854242839,-5.33989037762397,-5.23927951261971,-5.14677132493122,-4.96409553140697,1.00201628005116,1300
"mu[169]",-6.21986612611743,0.224349160672484,-6.63931432748051,-6.37822419086868,-6.21903573641256,-6.06462163615255,-5.78260526988749,1.00082020966377,3000
"mu[170]",-5.73148388016543,0.223853006172737,-6.16078244411336,-5.88558715547593,-5.7310831620548,-5.57379971166524,-5.29804879912944,1.00081657832962,3000
"mu[171]",-5.35726512556314,0.222513229952698,-5.78638010503117,-5.50874118793482,-5.35638067724532,-5.20777418243965,-4.92782440755527,1.00092968661794,3000
"mu[172]",-5.16981439147115,0.22070402632358,-5.58992252606289,-5.32127659831658,-5.16874425066412,-5.01684747048734,-4.75552662936246,1.00086610563818,3000
"mu[173]",-5.13093386474017,0.222630300659601,-5.55995626666477,-5.28664703258151,-5.13094457313118,-4.97490151348124,-4.70922768866091,1.00090237731554,3000
"mu[174]",-5.03535947445526,0.22163175111054,-5.46551619374909,-5.18796765217681,-5.03741849836013,-4.8811381718513,-4.61855512097304,1.00109226649282,3000
"mu[175]",-5.30814374752778,0.223872029732294,-5.73658869325519,-5.46252696844528,-5.30900505617968,-5.15576582397048,-4.87538601296525,1.0008467464842,3000
"mu[176]",-5.77243623803194,0.224166556928106,-6.19846079066908,-5.92851830255392,-5.77311920935817,-5.61964686625851,-5.33316609357668,1.00085806544974,3000
"mu[177]",-5.92862945423566,0.225247177608469,-6.36235379205386,-6.08319637960768,-5.93218297835458,-5.769722411807,-5.49528046697544,1.0007108058632,3000
"mu[178]",-5.09580201993584,0.106555514950093,-5.30600743690667,-5.167240170338,-5.09432650803141,-5.02352525789414,-4.89003711958678,1.00052953201689,3000
"mu[179]",-4.68142054156064,0.104564534445989,-4.88864484400912,-4.75027325889138,-4.67991542035458,-4.61244586631164,-4.47937637458908,1.00108420828969,3000
"mu[180]",-4.32244514510613,0.104109346667844,-4.52886429572902,-4.39150448229152,-4.32167266081711,-4.25300105014138,-4.12488428922153,1.0011686788205,3000
"mu[181]",-3.99248502133883,0.102047763663894,-4.19301555856049,-4.06154653183213,-3.99169734165212,-3.92441611101117,-3.79532617958542,1.00091329979339,3000
"mu[182]",-3.85861182237183,0.101852423834075,-4.05970660494206,-3.92776601977564,-3.86091541793885,-3.7871092270205,-3.65629033005332,1.00095088908118,3000
"mu[183]",-3.81810771774088,0.101277215649456,-4.01356773009281,-3.88579191988132,-3.81798470595185,-3.74899356488956,-3.62075366062802,1.00094838795675,3000
"mu[184]",-4.14833323924711,0.102688756087054,-4.34919204254095,-4.21853169323493,-4.14827343514341,-4.07637072515083,-3.95219800105426,1.00180177802467,2800
"mu[185]",-4.51840406792762,0.105771334171778,-4.73137572510001,-4.5889961211908,-4.51836523747747,-4.44346075201792,-4.31649773641531,1.00128524323678,3000
"mu[186]",-4.91127960033399,0.107705845439113,-5.12155930305643,-4.98464741993481,-4.91197312628239,-4.83754571656375,-4.7000617423713,1.00243778388131,1700
"mu[187]",-4.6002539009018,0.106489919221944,-4.80661419231368,-4.67201288196333,-4.60111234536702,-4.5266954505886,-4.39381515525043,1.00135929428424,2300
"mu[188]",-4.15569878998675,0.104068366501855,-4.35779100699609,-4.22777270202174,-4.15585564784777,-4.08425062940834,-3.95011087037298,1.00077522719206,3000
"mu[189]",-3.76728430723013,0.102079658427979,-3.9656903980547,-3.83680559604087,-3.76792968860843,-3.69845753767545,-3.56300192867979,1.00079197970058,3000
"mu[190]",-3.42039897392795,0.100982523703375,-3.61125030531261,-3.49018214251181,-3.42071751495662,-3.35118497213298,-3.22209680569241,1.0008844890168,3000
"mu[191]",-3.30749309182384,0.101424745523848,-3.50744787429318,-3.3758919677513,-3.30751766540058,-3.23989405891942,-3.11269805952605,1.00098279553689,3000
"mu[192]",-3.23572188502992,0.100301930758746,-3.42936629066481,-3.30557241725944,-3.23679007170144,-3.16844290412335,-3.04042530065794,1.00152975289034,1900
"mu[193]",-3.55585713688155,0.102156143139591,-3.75447451905563,-3.62532971635054,-3.55764180676212,-3.48506778142152,-3.35298382482558,1.0007171291888,3000
"mu[194]",-3.96780252044636,0.103752828322585,-4.17264076150602,-4.03873367054905,-3.96905422274254,-3.89769205662301,-3.76614666891874,1.00079310607983,3000
"mu[195]",-4.36458358127547,0.107905443868601,-4.57321133472741,-4.43643583082396,-4.36517944842041,-4.2938927649575,-4.15331883295642,1.00049888702893,3000
"mu[196]",-5.02732996761811,0.193137111500033,-5.39519007979118,-5.15541218287804,-5.02891127932879,-4.90240550134015,-4.64601188838958,1.00206579751715,1300
"mu[197]",-4.75772740572413,0.190125616069239,-5.12125409138084,-4.88484872233441,-4.75962135556244,-4.63156203224906,-4.36894442558413,1.00285400379256,850
"mu[198]",-4.2479454057447,0.189891432238344,-4.61305996735571,-4.37428992271237,-4.25059286617428,-4.11923185890063,-3.86021504925656,1.00309072920558,770
"mu[199]",-3.96522861642256,0.188726543919592,-4.32895316962266,-4.09220624794744,-3.96634867711479,-3.84093753099292,-3.59154889290836,1.0028451919991,850
"mu[200]",-4.0415552787404,0.188733599068871,-4.40992719834369,-4.16742148645804,-4.04096740016752,-3.915636499981,-3.65842212057394,1.0028886499355,840
"mu[201]",-4.05448984888528,0.189493895075425,-4.41604957904466,-4.18120791898878,-4.05961210184784,-3.92791567041967,-3.66848736010743,1.0025865009856,960
"mu[202]",-4.210641234446,0.18998469294471,-4.57073806035599,-4.33737188923402,-4.21629052789591,-4.08312718503551,-3.82684303543202,1.00321220906935,740
"mu[203]",-4.74201848481855,0.190698163126922,-5.10764046363992,-4.87043091772181,-4.74679971346619,-4.61592476431885,-4.35900432833501,1.00309062847489,770
"mu[204]",-5.19963248212357,0.19649555630383,-5.57504405119453,-5.33375564256391,-5.20806404736335,-5.06394540496023,-4.80090392095279,1.00374955342528,620
"mu[205]",-5.1252433426806,0.141720051147959,-5.40457304629833,-5.2216464012599,-5.1247393940955,-5.02783245734472,-4.8533907645693,1.00186680311514,1500
"mu[206]",-4.81700271637601,0.139623957355687,-5.08929654287651,-4.90862915845871,-4.8174561525759,-4.7226165647565,-4.54728335787806,1.00131103468048,2500
"mu[207]",-4.41221199937723,0.137377637232258,-4.68608623298562,-4.50281517568998,-4.41305624236351,-4.32301564247492,-4.14563207445907,1.00099311969213,3000
"mu[208]",-4.12949521005508,0.138257311449437,-4.40483427819863,-4.22002434713011,-4.13026078734416,-4.03664723054587,-3.85509743637036,1.00117225574877,3000
"mu[209]",-4.0488598387471,0.13783850772273,-4.32959761356451,-4.1397279123156,-4.04990035897339,-3.956980239159,-3.77498739517714,1.00108419430889,3000
"mu[210]",-4.02205861559973,0.1373631382452,-4.29310180539385,-4.11163945241849,-4.02192503122161,-3.93146862998996,-3.74940697732494,1.00103449232121,3000
"mu[211]",-4.29038135167854,0.138180911517923,-4.55987948870584,-4.3826828588399,-4.28839586929771,-4.19769828838008,-4.01805465320594,1.00107247354622,3000
"mu[212]",-4.62217326873542,0.138930795928062,-4.90454260397725,-4.71519534365455,-4.62018210028743,-4.52957619715423,-4.35013117747349,1.00103438711008,3000
"mu[213]",-4.93604970302131,0.140083384772307,-5.20625290568465,-5.02898816830289,-4.93569616473399,-4.84476489959089,-4.66474615401492,1.00137826264147,2300
"mu[214]",-6.63889007442237,1.68957594527389,-9.98387682800535,-7.75181975837625,-6.59095202823411,-5.52945211011742,-3.35501195750886,1.00069453957261,3000
"mu[215]",-6.06600678773995,1.690024115044,-9.43589941677125,-7.17649815500051,-6.01396483168251,-4.95578605491477,-2.77611203538237,1.00071170356278,3000
"mu[216]",-3.80577407805841,0.129527893348147,-4.05859866237268,-3.89511262673913,-3.80792136278127,-3.71833670415913,-3.54831969451919,1.00088390323729,3000
"mu[217]",-3.45793300606901,0.12851017680829,-3.7119966181661,-3.54568790027346,-3.46037284253102,-3.36828423556088,-3.20542710422269,1.00145260338579,2100
"mu[218]",-3.21442786609593,0.125031655573626,-3.45705580906117,-3.29836928586827,-3.21803661532549,-3.13135032899278,-2.96654862248937,1.00199005045464,1300
"mu[219]",-2.88029237973126,0.125075089001109,-3.11879758152387,-2.96337206896669,-2.88371108630852,-2.79753255508607,-2.62646130058304,1.00164355495166,1700
"mu[220]",-2.7792493744059,0.125578417904141,-3.02695131059965,-2.86385659799825,-2.78164048836088,-2.69368128324629,-2.52268784956647,1.00175099091719,1600
"mu[221]",-2.69647340040821,0.125441389405151,-2.93715769938529,-2.77978944076294,-2.70200544317722,-2.60976681308094,-2.44974370051433,1.00189133960339,1400
"mu[222]",-2.98749771978872,0.124399126275311,-3.23011519003703,-3.07153077135896,-2.98781067522853,-2.90203707221127,-2.73907049462576,1.00197125599581,1400
"mu[223]",-3.42796299844077,0.126410635337671,-3.67290767304958,-3.5118968143179,-3.42886124760734,-3.34324667293515,-3.17650512057683,1.00184560619577,1500
"mu[224]",-3.5805116516135,0.126842785723224,-3.82808472563055,-3.66635763873852,-3.58278430899502,-3.49559507455914,-3.32266402594717,1.00208654639132,1300
"mu[225]",-3.0594424082971,0.0699466352654256,-3.19072767907118,-3.10827653274541,-3.06127451346147,-3.01290462342858,-2.92416223701811,1.00136345305786,2300
"mu[226]",-2.75259803282251,0.0663338581645435,-2.87923893636017,-2.79825619644065,-2.75159028684632,-2.70736207816143,-2.62629273568897,1.00054597933621,3000
"mu[227]",-2.42833097758066,0.0645107070278416,-2.55934611142243,-2.47139411331974,-2.42780097533223,-2.38389429192463,-2.30269228887207,1.00054362239862,3000
"mu[228]",-2.01799537285894,0.0621663102040537,-2.14103982317768,-2.0603814086297,-2.01829515178766,-1.97572815989814,-1.8950184765797,1.00052379904042,3000
"mu[229]",-1.85861713756693,0.0613714487994237,-1.97636197356104,-1.8995706253929,-1.85936624978666,-1.81835982241957,-1.7393401393626,1.00060740054456,3000
"mu[230]",-1.72035037656341,0.060587207167224,-1.83533418540366,-1.76114383362059,-1.72060206377618,-1.67974522685802,-1.60211715835954,1.00131432006299,2500
"mu[231]",-1.78158873443544,0.0619015555042438,-1.90630972821482,-1.82246090106155,-1.78030910514611,-1.74054223849813,-1.66220867456585,1.00060987435348,3000
"mu[232]",-1.95738192911302,0.0639279948253358,-2.08351257936878,-2.00025396575479,-1.95699896915878,-1.91472825772815,-1.83416019087045,1.00079999678863,3000
"mu[233]",-2.25575901637099,0.0653731639570243,-2.38111605583493,-2.29969040634756,-2.25822670900609,-2.21150512156858,-2.12370916297387,1.00071639697047,3000
"mu[234]",-6.25962772276847,0.452526575729558,-7.12643015944678,-6.56178685161657,-6.26515379968794,-5.96701762938086,-5.36113392900133,1.00061116881679,3000
"mu[235]",-5.22776911110635,0.451025013970391,-6.08827567542755,-5.53375838424334,-5.22995974385949,-4.93065891093848,-4.32297419847057,1.00055771410843,3000
"mu[236]",-5.05637274774561,0.448642808734359,-5.9290529972242,-5.35882390341142,-5.05784535139632,-4.7580618079674,-4.14834039220375,1.00053759542252,3000
"mu[237]",-4.61528686908505,0.448919634813477,-5.4783782598199,-4.91894324039888,-4.61885797411951,-4.3204167953359,-3.70537123414722,1.00055653855614,3000
"mu[238]",-4.79722712462759,0.448296738218567,-5.66416119326031,-5.09729778631421,-4.79836667225467,-4.50417631931856,-3.89397860086061,1.00055134561824,3000
"mu[239]",-5.11933814809499,0.449346182614433,-5.99100301278715,-5.41825230545423,-5.12144485239818,-4.82956629588793,-4.21970468507323,1.00052881759769,3000
"mu[240]",-5.15347590183969,0.448314903184638,-6.01844068713107,-5.45497416301431,-5.15557516199809,-4.85907184733997,-4.26492300243281,1.00054456273834,3000
"mu[241]",-5.90333357736558,0.451059071959936,-6.78787495343171,-6.20366606912677,-5.905029371769,-5.61348041013197,-4.98914482396792,1.00051667021158,3000
"mu[242]",-4.44751974270272,0.087087668478201,-4.61750859830035,-4.50832025776901,-4.44711579168564,-4.38806201049201,-4.27635616516332,1.00099375505567,3000
"mu[243]",-4.13684788102098,0.0848150834036271,-4.30251575330005,-4.19467975451661,-4.13742854663893,-4.07867916700785,-3.97277766601906,1.00051399855083,3000
"mu[244]",-3.55723844206346,0.081666974359031,-3.72150919109309,-3.6117565008453,-3.55627723273984,-3.50099869890001,-3.40003830680355,1.00069660171739,3000
"mu[245]",-3.13357015110716,0.0829019056748487,-3.29665884607629,-3.19055114137374,-3.13209216668178,-3.07698843472328,-2.97264262432419,1.00067749331281,3000
"mu[246]",-3.2515626549763,0.0797123691245561,-3.40836038454023,-3.30497176704955,-3.25142374049835,-3.1988881806956,-3.09686739274635,1.00069069013956,3000
"mu[247]",-3.37388472774101,0.0805502230497153,-3.53252100288069,-3.42798698397138,-3.37274897416564,-3.31963237174985,-3.21556318211916,1.00099056475832,3000
"mu[248]",-3.70570567446914,0.0830169415892215,-3.86635353395874,-3.7602888293473,-3.70565082540766,-3.65107370314531,-3.54638944474524,1.00056044647442,3000
"mu[249]",-4.13194301010376,0.0877264226675002,-4.30662077004058,-4.19040731004704,-4.13303265642689,-4.07317580711874,-3.95465686252162,1.00054512240154,3000
"mu[250]",-4.56799268866577,0.094606792868805,-4.74914271478347,-4.63207536307813,-4.56802873053976,-4.50648206088359,-4.37206125574876,1.00084339786006,3000
"mu[251]",-3.26844161159735,0.0906988493793399,-3.44851310354479,-3.32970635094425,-3.26703082641938,-3.20523221844759,-3.09372885186887,1.00231162362728,1100
"mu[252]",-2.89462720536327,0.0862010243789062,-3.06086332621548,-2.95246071905347,-2.89560837627457,-2.83565785580892,-2.72463155658445,1.00140403988506,2200
"mu[253]",-2.52415117166913,0.085589897069407,-2.68700538549571,-2.58283175245056,-2.52452934197227,-2.46594621986895,-2.35238843693702,1.00149315956913,2100
"mu[254]",-2.29518103269201,0.0843501302858832,-2.45511643102466,-2.35367133710941,-2.29371008522071,-2.2380032457585,-2.13452815090083,1.00153454212273,1900
"mu[255]",-2.12385230818695,0.0839377889872803,-2.28853623965532,-2.1809749392808,-2.12445045287914,-2.06575596081844,-1.95808127922648,1.00192438845777,1500
"mu[256]",-2.03779257165199,0.0830439508105422,-2.19789690802145,-2.09403779605783,-2.03922070238927,-1.97916023093348,-1.87665172080601,1.00289440657257,840
"mu[257]",-2.00267625883635,0.0846417449195722,-2.16747607936315,-2.06145404210847,-2.00326650221012,-1.9445718304741,-1.84083116432723,1.00164482027863,1700
"mu[258]",-2.25952057166843,0.0856797260998186,-2.42255867380975,-2.31681603552052,-2.25974001805299,-2.20090047722438,-2.09577128098822,1.00203850287092,1300
"mu[259]",-2.45401876489855,0.0871141518867252,-2.62460458321535,-2.51322103508151,-2.45508206072992,-2.39285531503794,-2.28619399925331,1.00091852464248,3000
"mu[260]",-4.37421711865614,0.071840978257081,-4.51171303929467,-4.42454079209396,-4.37402698249006,-4.32550881094823,-4.23323600278098,1.00089499068326,3000
"mu[261]",-4.22685697277857,0.0667464924703934,-4.35723588827733,-4.2714483543344,-4.22812586547891,-4.18300158111322,-4.09221236202607,1.00057943194352,3000
"mu[262]",-3.80965132539837,0.0627754497369226,-3.93317313355842,-3.85252924507751,-3.80950129521652,-3.7674909137976,-3.6865307939478,1.00077698056716,3000
"mu[263]",-3.41288864837622,0.0612468344173567,-3.53008359287479,-3.45514387834905,-3.41317950701377,-3.37033339100051,-3.29268819529621,1.00054485347638,3000
"mu[264]",-3.36881291481675,0.0608090173887957,-3.48623723590264,-3.40973269314903,-3.37067931714455,-3.32752624880057,-3.24984299812926,1.00059022454939,3000
"mu[265]",-3.39093906275241,0.0600134706770327,-3.50839430722521,-3.42929170175698,-3.39170016634451,-3.35014063497428,-3.27392053357405,1.00083436482749,3000
"mu[266]",-3.71021293417043,0.0643544420192021,-3.83061104467472,-3.75445401613389,-3.71101890065092,-3.66576377325506,-3.58524807873012,1.00082331148383,3000
"mu[267]",-4.11581124979074,0.0677149798788286,-4.24610059572407,-4.1615613406416,-4.11514316812921,-4.06984870766766,-3.9848695118467,1.00067421304675,3000
"mu[268]",-4.49838699689702,0.0750927275938723,-4.64214401864743,-4.54925960807474,-4.49854336519183,-4.44853686363257,-4.35341736620326,1.00159813248206,1800
"mu[269]",-3.81682398549211,0.0723937003934852,-3.95951711759949,-3.86650028712725,-3.816448983481,-3.76724819664155,-3.6770769674221,1.00191356734599,1400
"mu[270]",-3.54166671267262,0.0670675987401866,-3.67514459325036,-3.5858645302162,-3.54203362700083,-3.49723367784252,-3.41162704381197,1.00146771365759,2100
"mu[271]",-3.13672508370156,0.0637906838690288,-3.25704387408985,-3.18119524564092,-3.13699061455879,-3.09236440697371,-3.0109667265867,1.00113484000641,3000
"mu[272]",-2.72711693157825,0.0640405013261381,-2.85158053093731,-2.77023409577108,-2.72679795128229,-2.683768413321,-2.6038561649462,1.00138580201671,3000
"mu[273]",-2.69477334181684,0.062854605314266,-2.81977867941201,-2.73683244310007,-2.6950775973406,-2.65129386858834,-2.57351139879187,1.00090285385119,3000
"mu[274]",-2.76119889946419,0.0611300853308561,-2.88009446153205,-2.80219219994962,-2.76155614706783,-2.71928792668303,-2.6431175627853,1.00104223173041,3000
"mu[275]",-3.12180592620752,0.0646698458614207,-3.24631819650522,-3.16518654136367,-3.12212807674743,-3.07720284003247,-2.9959374684048,1.00158589132573,1800
"mu[276]",-3.56857481576298,0.0701207900400135,-3.70689601159195,-3.61586197389885,-3.5677774491889,-3.52245361783372,-3.43190769273954,1.00125816511859,2600
"mu[277]",-3.90488216426324,0.0761687990437771,-4.05496076603021,-3.95585919436674,-3.90564997317177,-3.85295880814842,-3.75354807196795,1.00285652323414,850
"mu[278]",-5.17810925301227,0.508907703921168,-6.189924581239,-5.5207363250721,-5.18245337492591,-4.82407305465124,-4.1918982852779,1.00157686285792,1900
"mu[279]",-5.07278797690231,0.509681096650195,-6.07058086489915,-5.4175225892872,-5.07374349486461,-4.71820951369016,-4.06706226021889,1.00142985807285,2100
"mu[280]",-4.41014846728898,0.506537315652196,-5.40763691432147,-4.75129782081516,-4.41531766457184,-4.06000821586293,-3.41219692540902,1.0013099119329,2500
"mu[281]",-4.27449017229983,0.506701644605942,-5.26540434541531,-4.61662425731925,-4.27887593610841,-3.92500621814318,-3.26706224356158,1.00138720870567,2300
"mu[282]",-4.36248432774872,0.508444949375374,-5.36883232321335,-4.71304544521647,-4.3615008924669,-4.01094008354109,-3.36358849759762,1.00134371717434,2400
"mu[283]",-4.24258756223928,0.508107619791918,-5.24311370755867,-4.58623376444887,-4.24381873911726,-3.89219804827799,-3.2467533535498,1.00132244481497,2400
"mu[284]",-4.56522461181056,0.508245093792148,-5.56910457488629,-4.91011421046374,-4.56552440123936,-4.2141747539313,-3.55305909835971,1.00131989213911,2400
"mu[285]",-5.7146778222854,0.140851528937224,-5.98648809508517,-5.81050766358509,-5.71475581504546,-5.62062217202113,-5.43473143884,1.00208723312346,1300
"mu[286]",-5.3369067432819,0.1399906871636,-5.61820861699053,-5.43013694046955,-5.33708088919024,-5.24312809934784,-5.06477253373433,1.0013444276865,2400
"mu[287]",-4.92038482283725,0.13642638612685,-5.19356609207226,-5.0097891427869,-4.92016451990316,-4.83069606693656,-4.6526241732679,1.00124225701213,2700
"mu[288]",-4.56247225163657,0.135777382934961,-4.82931067876873,-4.65270362878433,-4.56191907512571,-4.47149533687948,-4.29810091596202,1.00145882763981,2100
"mu[289]",-4.62818306442737,0.136002452403961,-4.8924152665354,-4.71902681015728,-4.63114960352574,-4.5363756442059,-4.36887399947732,1.00143381362803,2100
"mu[290]",-4.64792584107818,0.137657357862434,-4.91010121084354,-4.73830326725561,-4.6489342535537,-4.55461378205065,-4.38001421898945,1.00177099326729,1600
"mu[291]",-5.04178507718186,0.139064593255156,-5.31995922924006,-5.13632870518199,-5.04120027236963,-4.94698137735055,-4.77043309632443,1.00103887580685,3000
"mu[292]",-5.44655211395329,0.141910250135244,-5.72738340470715,-5.5419891434016,-5.44579881918969,-5.35294866468267,-5.16860075062303,1.00111630890604,3000
"mu[293]",-5.78676486341305,0.144937540799491,-6.07321830527717,-5.8816739773079,-5.78478780584962,-5.69139216258165,-5.50417919129867,1.000738462498,3000
"mu[294]",-3.73574507762597,0.0920379203171107,-3.92017370664289,-3.79550485524198,-3.73713027188706,-3.67644058857457,-3.55610635302334,1.00093302310177,3000
"mu[295]",-3.3976357188607,0.0890422523686411,-3.57436586610639,-3.4578853402215,-3.39715012969308,-3.33933975923829,-3.22383216773776,1.00140093533416,2200
"mu[296]",-2.93788865620775,0.0878583749900539,-3.10872896664425,-2.99786056080649,-2.93799147596688,-2.87903102019539,-2.76441531686916,1.00158179410755,1800
"mu[297]",-2.73105055590898,0.0851217014404478,-2.89325336569584,-2.78963269896184,-2.73222445408162,-2.67335007675734,-2.56296900517933,1.0015232709,2300
"mu[298]",-2.68704798801487,0.0851993683631282,-2.8494435407238,-2.74600716336418,-2.68659331583945,-2.62846458619247,-2.52379960318873,1.00133613520459,2400
"mu[299]",-2.6998202314471,0.0855620671686401,-2.86554694982669,-2.75648225983436,-2.70170513438099,-2.64219644311446,-2.531955607406,1.00094358305652,3000
"mu[300]",-2.81089274524372,0.0857328008007189,-2.97380313060071,-2.87122577789568,-2.81155029926139,-2.75390299315183,-2.64661103297517,1.00182053072159,1500
"mu[301]",-3.12097488573483,0.0864846197913829,-3.28684903858465,-3.18062359412786,-3.12139939720362,-3.06362187071647,-2.95021246828708,1.00149613114568,2000
"mu[302]",-3.63552786217649,0.0915379757102454,-3.81006318364093,-3.69880138805165,-3.63609931862451,-3.57367871155934,-3.4559953248357,1.00296482126134,810
"mu[303]",-3.74482894652714,0.0822846407449733,-3.90273848614136,-3.79943997621303,-3.74451032981449,-3.68838100245165,-3.58448255299745,1.00167178963962,1700
"mu[304]",-3.33404306976218,0.0804583125235285,-3.49335286917023,-3.38826079026733,-3.33172805155508,-3.28001582924904,-3.18159012629853,1.00138635521667,2300
"mu[305]",-2.93494362619336,0.0779109161569612,-3.09088533093786,-2.98710286419575,-2.93308115632583,-2.88346553882726,-2.78302005680866,1.00122271573506,2800
"mu[306]",-2.59944040979861,0.075869629103979,-2.74979465087746,-2.65163851622942,-2.5990919237434,-2.54791202026321,-2.45170196929134,1.00116063957439,3000
"mu[307]",-2.44671367120899,0.0771880111612587,-2.5962032594945,-2.49845822904644,-2.44652063533203,-2.39570257082712,-2.29484231157639,1.00091798713443,3000
"mu[308]",-2.3345695070427,0.0762114478878274,-2.48695000392741,-2.3855586373912,-2.33339157008457,-2.283187908431,-2.18753602054556,1.00054764441971,3000
"mu[309]",-2.58135978583207,0.0765626150996478,-2.7313401773354,-2.63146981477947,-2.58261740671331,-2.53077361456624,-2.43383702828026,1.00127087173035,2600
"mu[310]",-2.9598206742814,0.0779792150982291,-3.11291504461751,-3.01242521363251,-2.96048166828782,-2.90712710877982,-2.81003271955011,1.00103228676493,3000
"mu[311]",-3.41854981184502,0.0833855861403896,-3.58486008862034,-3.47507031374481,-3.41819936471166,-3.36110231825396,-3.26012381677884,1.00254251064167,980
"mu[312]",-5.32934502312502,0.115866546113026,-5.5581325034946,-5.41083983417868,-5.32822907385559,-5.25183714984091,-5.10155136108757,1.00146206594145,2100
"mu[313]",-5.08305247355495,0.113493031587507,-5.30223063522492,-5.16233754184282,-5.08452980434417,-5.00516724033916,-4.86177445877944,1.00078360948524,3000
"mu[314]",-4.58538343285432,0.112074998960678,-4.80995032752719,-4.66219589968818,-4.58503838203228,-4.51072491547857,-4.3662466081124,1.00063006632785,3000
"mu[315]",-4.27423771844772,0.111115259397618,-4.49544437480654,-4.3487688017276,-4.27649391763815,-4.20097594772637,-4.06020069630153,1.0007707592417,3000
"mu[316]",-4.31383731516544,0.1112199226641,-4.53296903463825,-4.39032106769191,-4.3140251826499,-4.24097169055922,-4.09060272737186,1.00075009644473,3000
"mu[317]",-4.37173156954438,0.111046162200632,-4.5892119457792,-4.44730315699859,-4.37070104132256,-4.29638565373863,-4.15287474759079,1.00096047167746,3000
"mu[318]",-4.73240782813437,0.113030698763077,-4.9505931245865,-4.80776827611257,-4.73455366355001,-4.65763464709626,-4.51369249993996,1.00059006826371,3000
"mu[319]",-5.10206317025878,0.115013340200339,-5.31777679784357,-5.18005887061095,-5.10277068534843,-5.02617964465689,-4.87186752717303,1.00062309771258,3000
"mu[320]",-5.57716854206457,0.122320152978183,-5.81954351020727,-5.65685118018706,-5.58162462090337,-5.49620171720622,-5.33964227419741,1.00093924683296,3000
"mu[321]",-5.40005064132264,0.481258352733165,-6.33218704859422,-5.71923495661277,-5.39839478988166,-5.07866669944716,-4.45270445277202,1.00350088499446,670
"mu[322]",-5.22153126084125,0.482628495138124,-6.16255942267297,-5.55381182128708,-5.22267847293799,-4.90394495145355,-4.26376545036482,1.00389601990339,590
"mu[323]",-4.11391833478942,0.482304063740023,-5.03515779211346,-4.4429330690185,-4.11234329661172,-3.79791841509202,-3.1586529832241,1.00357291014987,650
"mu[324]",-3.96136597217789,0.482309810695021,-4.88664572189706,-4.28600540675648,-3.96272540172861,-3.64337724437077,-2.99721181081177,1.00333569205544,710
"mu[325]",-4.73647524486804,0.481981951043215,-5.66248223219317,-5.07179242717388,-4.73472011691786,-4.42172227776093,-3.7789099622111,1.0036771281528,630
"mu[326]",-4.34611647113052,0.105714452517345,-4.55814617395841,-4.41714377186339,-4.34711714775777,-4.27468540293656,-4.14277018692813,1.00125469182648,2600
"mu[327]",-4.00541551996627,0.104977625716912,-4.21241646034709,-4.07542102832883,-4.00537787295422,-3.93316503690834,-3.80172813521477,1.0007125344305,3000
"mu[328]",-3.54380980985813,0.102830897156712,-3.74558128148504,-3.61421529592789,-3.54308134059796,-3.47624619614884,-3.34494108525088,1.00052981103872,3000
"mu[329]",-3.11251209821724,0.102126574404532,-3.31327935772214,-3.18169939789695,-3.11155687094979,-3.04358996341154,-2.91210322405606,1.00059784628522,3000
"mu[330]",-3.0969507079,0.10170616198251,-3.29685236074009,-3.16796560116063,-3.09559050356381,-3.02467745535364,-2.89707084107753,1.00056965178974,3000
"mu[331]",-3.23935807435147,0.101488093375706,-3.44088625916617,-3.30784006414047,-3.23832599197058,-3.16925070159425,-3.04488115809913,1.00063757105399,3000
"mu[332]",-3.5935683953254,0.103770022673625,-3.79807653869075,-3.66377233996518,-3.59389829013533,-3.52131327179568,-3.39299258022216,1.0006193688703,3000
"mu[333]",-4.08034843954974,0.10857125023841,-4.29479637034952,-4.15561863769047,-4.07899343948914,-4.00637764773075,-3.86782102986491,1.00060105412482,3000
"mu[334]",-4.41925778409872,0.111976738449773,-4.64450985623146,-4.49124710226339,-4.41795854968611,-4.34507053294463,-4.19803332453053,1.00106815743927,3000
"mu[335]",-4.17796186305099,0.451040056699919,-5.07540407880857,-4.48279168265892,-4.17133026278843,-3.88096714428401,-3.31083158754783,1.00187658116743,1500
"mu[336]",-3.82270758644526,0.450070118326419,-4.71191287325663,-4.12399946835869,-3.81019225917062,-3.51923131555058,-2.96075967316918,1.00198714726197,1300
"mu[337]",-4.31419093406792,0.449638831314569,-5.21114905077438,-4.61758054080912,-4.30704683996144,-4.01584140747213,-3.4504187431174,1.00195275679824,1400
"mu[338]",-4.29735264102499,0.451253891224168,-5.20160164824326,-4.60282590671451,-4.28580308585958,-4.0008611197004,-3.41888939044539,1.00200649920139,1300
"mu[339]",-5.36440492545591,0.455464763020289,-6.28316710673061,-5.66562466303702,-5.36030375152176,-5.05865593506535,-4.49669372642019,1.00184467372427,1500
"mu[340]",-5.39186846172145,0.452433588906184,-6.30489752367613,-5.68754382784055,-5.38636075853607,-5.09062074061841,-4.5104935657041,1.00176080884799,1600
"mu[341]",-4.19928093534018,0.0938426090371026,-4.38545202450786,-4.26318074996919,-4.20077640019546,-4.13359176844341,-4.0126843588123,1.00198260337862,1300
"mu[342]",-3.89572222478711,0.0919402049812574,-4.06854195094091,-3.95920739050333,-3.89683212886918,-3.83174266523311,-3.71435578625004,1.0027344746799,900
"mu[343]",-3.48339217440945,0.0876402466873123,-3.65622190109407,-3.5439692601,-3.48245923562739,-3.42053975743757,-3.31232779635803,1.00300913595902,800
"mu[344]",-3.11737977132616,0.0879065059356398,-3.28698516025301,-3.17553001772599,-3.11673943438398,-3.05777868624419,-2.94900175891828,1.00256117757135,970
"mu[345]",-3.16032786067423,0.0866241294539626,-3.32778182826046,-3.21907375735209,-3.16074933881501,-3.1004586469256,-2.99740624982266,1.00260165330146,950
"mu[346]",-3.25008631835088,0.087755019895032,-3.41632788281273,-3.30971612320621,-3.25053206721332,-3.18942048790213,-3.0760208129841,1.00186276893428,1500
"mu[347]",-3.58096093693054,0.0894942482565719,-3.75798967806249,-3.64184041942362,-3.5800597614176,-3.51940601295486,-3.40732429596614,1.00357442234946,650
"mu[348]",-3.99079793971788,0.094387132358351,-4.17796311754311,-4.05589937940124,-3.98874849581802,-3.92516690276581,-3.81045515901847,1.0029412880595,820
"mu[349]",-4.36403717498626,0.0982971725869622,-4.55826937943322,-4.43125189399582,-4.3630386527705,-4.29868106184036,-4.17115657177095,1.00483821257965,460
"mu[350]",-2.95294022370426,0.0482803044692535,-3.04682377404542,-2.98615253242033,-2.95330310749921,-2.91982143533426,-2.86004797951504,1.00198895794845,1300
"mu[351]",-2.55125357707971,0.0430224327180405,-2.63611862449766,-2.57959926800479,-2.55178662617315,-2.52253372361301,-2.46905933393385,1.00073651133342,3000
"mu[352]",-2.21866293320114,0.03787194581954,-2.29432176970775,-2.24387898118092,-2.21949008738786,-2.19303362284256,-2.14559387443207,1.00087242783602,3000
"mu[353]",-1.94566598334571,0.0366942508184047,-2.01758966963075,-1.96962863168009,-1.94576947154647,-1.92080589907236,-1.87436995838203,1.00060962576332,3000
"mu[354]",-1.84658208733561,0.0370454442953825,-1.92056304399024,-1.87107438531058,-1.84717457672283,-1.82323240853642,-1.77184357400572,1.00052163398478,3000
"mu[355]",-1.63425995169396,0.0355469427230796,-1.70387430583537,-1.65836781173325,-1.6342851876535,-1.61083046563474,-1.5639635240161,1.0014500343013,2100
"mu[356]",-1.71691154594425,0.0361363501327039,-1.78772249761835,-1.74123728014484,-1.7169964923888,-1.69240364249537,-1.64601250585915,1.00120011230519,3000
"mu[357]",-1.90107123111514,0.0386185664096398,-1.97740793927555,-1.92640297961681,-1.90077024441947,-1.8754347031559,-1.82445295417075,1.00077367535071,3000
"mu[358]",-2.11113411885035,0.0445077669032207,-2.19826060904902,-2.14162058047205,-2.11117613262257,-2.0807861884145,-2.02360283553683,1.00162809101307,1800
"mu[359]",-3.94359733144317,0.0946864387481935,-4.12999321931886,-4.00652436946957,-3.94295425132074,-3.87838694855688,-3.75592645034545,1.0019389921806,1400
"mu[360]",-3.53982033410767,0.0925918733910602,-3.72409459708884,-3.6008937282188,-3.54039567026705,-3.47601459494912,-3.35889438070009,1.00164589284648,1700
"mu[361]",-3.0610407232895,0.0903785542178924,-3.23963942392844,-3.12084531492407,-3.06057691769488,-2.99965890201933,-2.88725020261034,1.00131410318036,2500
"mu[362]",-2.74761165731002,0.089555985109725,-2.92268966572455,-2.80764123867589,-2.74697728944887,-2.68805685600811,-2.57115504068503,1.00133108678534,2400
"mu[363]",-2.61828835690057,0.089360743166697,-2.79238389759448,-2.67869443842438,-2.61859954066402,-2.55819195061014,-2.44520105522919,1.00111850724295,3000
"mu[364]",-2.4857292506735,0.0886960573553006,-2.66204537807598,-2.54422197550808,-2.48549383146611,-2.42354168454232,-2.31934326829622,1.00068683451116,3000
"mu[365]",-2.50859738105221,0.0888812413755442,-2.68904350945578,-2.5664960413099,-2.5095817878722,-2.44719386796487,-2.33591645663088,1.00118399953236,2900
"mu[366]",-2.7585308462635,0.0897760085560766,-2.93088533233649,-2.8196193068469,-2.75728525267044,-2.69693378613974,-2.5831096354867,1.00091744500342,3000
"mu[367]",-3.12349648971642,0.0931462498837434,-3.303818007737,-3.1870396555197,-3.12291863154951,-3.0609260135173,-2.94479518036801,1.00203609381282,1300
"mu[368]",-5.12645377249899,0.124364254487146,-5.3668009555944,-5.20978919326796,-5.12826038507641,-5.04476286094079,-4.88459876916533,1.0040330442766,570
"mu[369]",-4.81646607829001,0.12230098007515,-5.04850880037302,-4.89977238883888,-4.81794843516749,-4.73515290152787,-4.57685500335064,1.00275924980103,890
"mu[370]",-4.39671986490253,0.120962608614874,-4.62775488452866,-4.4783282114054,-4.39729703476534,-4.31681332883365,-4.16374683954112,1.00215151183557,1200
"mu[371]",-4.09383402154186,0.119318796172914,-4.32569240370925,-4.17432574117395,-4.09403659658006,-4.01432594417004,-3.85810599304005,1.00265437741685,930
"mu[372]",-4.09142062224066,0.118915699987225,-4.32009779170468,-4.17140431719582,-4.09375014107612,-4.01038900549243,-3.86078096995434,1.00256179812654,970
"mu[373]",-4.1130164800403,0.118816712037648,-4.34160173560597,-4.1922758163683,-4.11372464986584,-4.03364923127248,-3.88712234773013,1.00272775556001,900
"mu[374]",-4.44079331314198,0.121280755563605,-4.67707402203679,-4.52207292648361,-4.44272758547998,-4.35835024124109,-4.20346122761585,1.00222394333105,1200
"mu[375]",-4.86130849456521,0.123708292847691,-5.10458383794072,-4.94418549530236,-4.86357983935995,-4.77695812004803,-4.61943940629634,1.00224272146277,1100
"mu[376]",-5.17866427502365,0.126699184129319,-5.42455857472127,-5.26367557797988,-5.18020237005898,-5.09582779332516,-4.92648620909147,1.00221999834464,1200
"mu[377]",-3.77309603153932,0.0684758561657354,-3.90292953031139,-3.82090139909997,-3.77343673472496,-3.72717705232804,-3.637575722724,1.00372633336644,620
"mu[378]",-3.37911257126673,0.0671109388921281,-3.51418864104955,-3.4239261012989,-3.37918227194379,-3.33300265498879,-3.24789951922268,1.0026007962067,1400
"mu[379]",-2.94833399618694,0.06305288803156,-3.07470212846696,-2.99040831245881,-2.95045674221908,-2.9070584519057,-2.82264995245779,1.00115841298837,3000
"mu[380]",-2.64215223455181,0.0615672095687669,-2.75981613328361,-2.68493507104689,-2.64200014586229,-2.60035235037225,-2.52040477237949,1.00168726557081,1700
"mu[381]",-2.52635469013617,0.0620987533833509,-2.64405250578609,-2.56895675051945,-2.52697943424969,-2.48353859727314,-2.40007501832159,1.00138866870234,2200
"mu[382]",-2.42903559239587,0.0614243468346144,-2.54976875237872,-2.47010026722127,-2.4294188412633,-2.38759594831741,-2.30552364959569,1.00144116766903,2100
"mu[383]",-2.66776100730021,0.061171308658433,-2.78762639637097,-2.70943295913056,-2.6683966810109,-2.6265662521071,-2.54846779903732,1.00129479911876,2500
"mu[384]",-3.02654645065724,0.0642431021747997,-3.15178075309853,-3.06942610280799,-3.02781877153169,-2.98482334712204,-2.89608944267756,1.00116209403958,3000
"mu[385]",-3.46173376266012,0.0688396982686021,-3.59420324178759,-3.50865167725336,-3.46255292297794,-3.41473838941529,-3.32839981946347,1.00230595738838,1100
"mu[386]",-5.76436120519068,0.541588147687215,-6.8277210501295,-6.12174035084604,-5.76595553756037,-5.40263418508978,-4.72998563085415,1.00340972096849,690
"mu[387]",-5.53269696163961,0.540277386536099,-6.59987253166991,-5.892608598063,-5.53565979357185,-5.17663862293046,-4.50200701905884,1.00331985620434,710
"mu[388]",-5.37508919718071,0.539338411654621,-6.43768531802776,-5.73319854858331,-5.38043715688946,-5.01604754408917,-4.34077395931291,1.00338653021956,690
"mu[389]",-5.61215348047722,0.541049436256297,-6.67648632814746,-5.97597912479729,-5.61537141303612,-5.25003457652989,-4.58069942675779,1.00329538948849,720
"mu[390]",-5.68016986964925,0.540291624353333,-6.762373047188,-6.03533165624714,-5.68164913516304,-5.31250225350988,-4.65240409346369,1.00345924286309,680
"mu[391]",-5.62086160307398,0.541210474634833,-6.69597219336818,-5.98130360477241,-5.62238186720696,-5.26371019328042,-4.58823285493986,1.00329827688178,720
"mu[392]",-4.4144473394916,0.0967402523056502,-4.60847918678739,-4.47937582202822,-4.41328741985735,-4.35010651298963,-4.22855131015266,1.00067252725654,3000
"mu[393]",-3.99172787649479,0.0958989766117399,-4.18465392413135,-4.05522062779654,-3.99036210027689,-3.92626125811408,-3.80782462064239,1.00053552139822,3000
"mu[394]",-3.58617107631182,0.0937861667790548,-3.77457530356713,-3.6499974044267,-3.58439127448833,-3.52290058035842,-3.40528206507041,1.00076213701639,3000
"mu[395]",-3.24734225945526,0.0922406477491299,-3.43374443369861,-3.30759656160862,-3.24691992201721,-3.18706907112718,-3.06830391514834,1.00070793729432,3000
"mu[396]",-3.17179661769431,0.0928520560298284,-3.35727158479068,-3.23609723704848,-3.17036157464433,-3.10769484713749,-2.9942278958143,1.00070878594797,3000
"mu[397]",-3.11741811127974,0.0921699745715351,-3.30092766575399,-3.18053013840203,-3.11607607027297,-3.05561845956485,-2.93817491091556,1.00102168470267,3000
"mu[398]",-3.43991550373382,0.0930617410136645,-3.62101755113854,-3.50269251670577,-3.43883634815081,-3.37774014935047,-3.259545794704,1.0007164782204,3000
"mu[399]",-3.89559901930988,0.0955722703001476,-4.08406914899449,-3.95775841913933,-3.89614954419501,-3.83134435384321,-3.71238170482908,1.00067673551308,3000
"mu[400]",-4.20101836436373,0.0990329116769171,-4.40084572622798,-4.26870485043811,-4.20028707818016,-4.13262993705889,-4.00845230578726,1.00089441508899,3000
"mu[401]",-4.23195825821297,0.292840763297395,-4.81473020403614,-4.42901773033372,-4.22528873640145,-4.03699636188536,-3.65843290866297,1.00082446236851,3000
"mu[402]",-3.66510722958703,0.291802634469916,-4.23404864545835,-3.85754813516801,-3.65978360623573,-3.47111646183287,-3.10088387758701,1.00066344909844,3000
"mu[403]",-2.99889068375283,0.290959464326757,-3.56803725492633,-3.19183541971378,-2.99429639621253,-2.80405893899782,-2.43625477285518,1.00064031954942,3000
"mu[404]",-2.97241065263975,0.290124518397679,-3.54980710813207,-3.16411470800421,-2.97371674179949,-2.77697765024114,-2.41357675798524,1.00066342836123,3000
"mu[405]",-2.94826171623569,0.290260331674258,-3.51877506661615,-3.14144827455941,-2.94269437997968,-2.75430977684029,-2.38781320519195,1.00073056650387,3000
"mu[406]",-3.32170568907914,0.290362894354164,-3.88746487233915,-3.51448881402223,-3.31822671560969,-3.1263170020665,-2.75962804135123,1.00059841693494,3000
"mu[407]",-3.29054000594407,0.290881875014797,-3.85267069420234,-3.48630512127214,-3.2898803331444,-3.09534906719311,-2.72375681362819,1.00064505275376,3000
"tau",375.356836476619,134.568897469913,174.987331691226,277.275329925147,354.329322549879,449.195204437954,708.480152335988,1.00639113287457,420
